{
    "acc": {
        "accuracy": 0.6493702770780856,
        "recall": 0.6493702770780856,
        "f1_score": 0.6189334693848085,
        "precision": 0.6173809469340443,
        "roc_auc": 0.9416404505495262,
        "top5_accuracy": 0.8997481108312343,
        "inference_time": 9.356147527694702,
        "selected_classifiers": [
            "SVMClassifier",
            "RBFClassifier",
            "RandomForestClassifierWrapper",
            "NaiveBayesClassifier",
            "LogisticRegressionClassifier",
            "AdaBoostClassifierWrapper",
            "GBMClassifier",
            "XGBoostClassifier"
        ],
        "selected_weights": [
            0.07719512283802032,
            0.16135337948799133,
            0.06362076848745346,
            0.16351158916950226,
            0.17402200400829315,
            0.08711770921945572,
            0.13290242850780487,
            0.14027704298496246
        ],
        "activation_bits": [
            3.793274164199829,
            3.398878335952759,
            1.9134912490844727,
            1.9718502759933472,
            0.6866945028305054,
            0.14373403787612915,
            0.2895827293395996,
            -2.2066640853881836,
            3.058663845062256,
            2.147736072540283,
            4.211720943450928
        ]
    },
    "recall": {
        "accuracy": 0.6337531486146095,
        "recall": 0.6337531486146095,
        "f1_score": 0.6142130942594919,
        "precision": 0.6203917490051634,
        "roc_auc": 0.9405445894466619,
        "top5_accuracy": 0.9032745591939546,
        "inference_time": 8.8707594871521,
        "selected_classifiers": [
            "SVMClassifier",
            "RBFClassifier",
            "RandomForestClassifierWrapper",
            "NaiveBayesClassifier",
            "LDAClassifier",
            "DecisionTreeClassifierWrapper",
            "AdaBoostClassifierWrapper"
        ],
        "selected_weights": [
            0.303228497505188,
            0.13721773028373718,
            0.09513887763023376,
            0.23675239086151123,
            0.08771230280399323,
            0.03424537926912308,
            0.10570481419563293
        ],
        "activation_bits": [
            2.8048758506774902,
            6.568780899047852,
            5.990270137786865,
            2.5978126525878906,
            -5.9055585861206055,
            4.585628032684326,
            -6.368175983428955,
            6.332499027252197,
            3.4608383178710938,
            -0.9033823609352112,
            -5.667529582977295
        ]
    },
    "f1": {
        "accuracy": 0.6463476070528967,
        "recall": 0.6463476070528967,
        "f1_score": 0.6223835033139069,
        "precision": 0.616577005825025,
        "roc_auc": 0.9401041911798013,
        "top5_accuracy": 0.9007556675062972,
        "inference_time": 3.3466830253601074,
        "selected_classifiers": [
            "SVMClassifier",
            "NaiveBayesClassifier",
            "LogisticRegressionClassifier",
            "GBMClassifier"
        ],
        "selected_weights": [
            0.3824222981929779,
            0.1668625921010971,
            0.2866675555706024,
            0.1640474945306778
        ],
        "activation_bits": [
            4.035577297210693,
            -0.28273338079452515,
            -1.7579935789108276,
            2.076058864593506,
            2.41049861907959,
            -0.8186652064323425,
            -1.3528944253921509,
            -4.648778915405273,
            -3.612168550491333,
            1.8328347206115723,
            -0.17844027280807495
        ]
    },
    "precision": {
        "accuracy": 0.6418136020151134,
        "recall": 0.6418136020151134,
        "f1_score": 0.6168829099108196,
        "precision": 0.6205134816104734,
        "roc_auc": 0.9378252997330851,
        "top5_accuracy": 0.9042821158690176,
        "inference_time": 8.779212713241577,
        "selected_classifiers": [
            "SVMClassifier",
            "RBFClassifier",
            "NaiveBayesClassifier",
            "DecisionTreeClassifierWrapper"
        ],
        "selected_weights": [
            0.2946789264678955,
            0.25208231806755066,
            0.2509060502052307,
            0.20233266055583954
        ],
        "activation_bits": [
            0.5422636270523071,
            0.6917582154273987,
            0.3282052278518677,
            1.3594386577606201,
            -0.4114443063735962,
            -1.3457896709442139,
            0.0838659256696701,
            0.570185661315918,
            -0.9542336463928223,
            0.017785359174013138,
            -0.41412973403930664
        ]
    },
    "top5": {
        "accuracy": 0.5622166246851386,
        "recall": 0.5622166246851386,
        "f1_score": 0.5641753237466651,
        "precision": 0.5998869952655739,
        "roc_auc": 0.93533977324051,
        "top5_accuracy": 0.9133501259445844,
        "inference_time": 3.2631583213806152,
        "selected_classifiers": [
            "SVMClassifier",
            "NaiveBayesClassifier",
            "AdaBoostClassifierWrapper"
        ],
        "selected_weights": [
            0.2622438371181488,
            0.3989412188529968,
            0.3388148844242096
        ],
        "activation_bits": [
            0.5455352067947388,
            -0.14434102177619934,
            -0.1885688602924347,
            0.7806277275085449,
            0.3951612114906311,
            0.3649784326553345,
            -0.19233043491840363,
            -0.1949162781238556,
            1.193882942199707,
            -0.005041584372520447,
            0.15460346639156342
        ]
    },
    "auc": {
        "accuracy": 0.5118387909319899,
        "recall": 0.5118387909319899,
        "f1_score": 0.4773661410895331,
        "precision": 0.47109952159362783,
        "roc_auc": 0.9290893661009583,
        "top5_accuracy": 0.890176322418136,
        "inference_time": 5.258897304534912,
        "selected_classifiers": [
            "RBFClassifier",
            "RandomForestClassifierWrapper",
            "DecisionTreeClassifierWrapper"
        ],
        "selected_weights": [
            0.33038970828056335,
            0.37122973799705505,
            0.298380583524704
        ],
        "activation_bits": [
            0.10606419295072556,
            1.1104352474212646,
            0.8453245759010315,
            -0.33445629477500916,
            -0.8620524406433105,
            -0.04479588568210602,
            -1.2397099733352661,
            0.8925615549087524,
            0.19005227088928223,
            -1.033942699432373,
            -0.4826577603816986
        ]
    },
    "time": {
        "accuracy": 0.46700251889168765,
        "recall": 0.46700251889168765,
        "f1_score": 0.4384078701932947,
        "precision": 0.43136658709544345,
        "roc_auc": 0.7925719522263934,
        "top5_accuracy": 0.745088161209068,
        "inference_time": 0.049428701400756836,
        "selected_classifiers": [
            "GBMClassifier"
        ],
        "selected_weights": [
            1.0
        ],
        "activation_bits": [
            -1.0364419221878052,
            -1.629020094871521,
            0.006848696619272232,
            0.2702626883983612,
            -0.05894783139228821,
            0.04689391702413559,
            0.26648205518722534,
            -0.35693150758743286,
            -0.6008108854293823,
            0.5097602605819702,
            -0.556003987789154
        ]
    }
}